// Quantized INT8 weights and fixed-point params
// Converted from float weights by per-tensor symmetric quantization.
// Activation scales (SCALE_*) are approximated from a reference model;
// recalibrate with representative input data for best inference accuracy.
#ifndef NN_WEIGHTS_H
#define NN_WEIGHTS_H

#include <stdint.h>

#define NN_INPUT_LEN 150
#define NN_INPUT_CH 6
#define NN_CONV1_OUT_CH 16
#define NN_CONV2_OUT_CH 32
#define NN_DENSE1_OUT 16
#define NN_NUM_CLASSES 3

// Label mapping from LabelEncoder
// 0 -> circle
// 1 -> left_right
// 2 -> static
// 3 -> updown

// Activation scales (float) for reference
#define SCALE_INPUT       5.0141622683e-02f
#define SCALE_CONV1_RELU  7.5148693848e-02f
#define SCALE_POOL1       7.5148693848e-02f
#define SCALE_CONV2_RELU  1.3900290709e-01f
#define SCALE_GAP         4.2190570306e-02f
#define SCALE_DENSE1_RELU 1.1482807945e-01f
#define SCALE_LOGITS      2.0173662102e-01f

// Weight scales (float) for reference
#define SCALE_W_CONV1  5.2684432913e-03f
#define SCALE_W_CONV2  4.5868745039e-03f
#define SCALE_W_DENSE1 4.9850551181e-03f
#define SCALE_W_DENSE2 7.3242675591e-03f

// Requantization params: out = (acc * MULT + ROUND) >> SHIFT
#define RQ_MULT_CONV1   3774497
#define RQ_SHIFT_CONV1  30
#define RQ_MULT_POOL1   1073741824
#define RQ_SHIFT_POOL1  30
#define RQ_MULT_CONV2   2662651
#define RQ_SHIFT_CONV2  30
#define RQ_MULT_GAP     1768798501
#define RQ_SHIFT_GAP    29
#define RQ_MULT_DENSE1  1966696
#define RQ_SHIFT_DENSE1 30
#define RQ_MULT_DENSE2  4476385
#define RQ_SHIFT_DENSE2 30

// Preprocess: raw sensor -> standardize -> quantize to int8
// standardize: (value - MEAN) / STD
// quantize: round(standardized / SCALE_INPUT), clamped to [-128, 127]
const float NN_MEAN[NN_INPUT_CH] = {
  0.101211f,
  0.013808f,
  0.893070f,
  3.556263f,
  -1.955217f,
  -2.195934f,
};
const float NN_STD[NN_INPUT_CH] = {
  0.501363f,
  0.288198f,
  0.528863f,
  99.815651f,
  57.549427f,
  101.637955f,
};

const int8_t CONV1_W[288] = {
  1, -36, -11, 24, 1, 47, 57, 23, 43, -35, 82, 79,
  67, 27, 40, -27, 69, -18, -68, 50, -111, 73, 2, -19,
  22, -19, -16, 30, 85, 16, 27, 11, -78, 113, 61, 21,
  -24, 10, -53, 23, -60, -52, -45, 45, -30, -51, -74, -61,
  46, 53, -89, -70, -97, 12, 63, -70, 50, 70, 31, 87,
  -30, -75, 49, 11, -23, 22, 64, -25, 1, 71, -37, 107,
  18, 64, -3, -17, -48, -7, -38, 83, -14, 45, -42, 29,
  50, 67, 35, -50, -12, 64, -56, -40, -85, 41, 7, 7,
  18, -15, -60, 27, 46, 71, -7, -51, 22, -30, 29, 23,
  54, 18, -10, 42, -14, 19, 89, -12, 48, 16, -52, -50,
  74, -30, 12, 17, 27, -93, -63, -20, 10, -33, -4, 114,
  -69, -40, -20, -30, 38, 127, 8, -28, -65, -77, 16, 26,
  -32, 6, -89, -109, 24, 64, -31, 7, -63, -103, 83, -5,
  15, -35, -91, -19, 3, 71, -23, -38, 33, -73, -15, 33,
  4, -10, 20, -45, -78, -35, 4, 15, 83, -55, -27, -13,
  17, -3, -15, 90, 1, -80, -12, 14, -8, -5, -59, -113,
  -47, -39, 4, 39, -75, -118, -35, 66, 6, 8, -19, -8,
  23, 21, 20, -37, -16, 19, 5, 64, 53, -70, 23, -21,
  -10, 16, 86, -37, 1, 29, -44, 23, 71, -58, 29, 26,
  -23, -51, 72, -2, 5, 16, 1, 40, -87, 80, 31, 13,
  -29, 27, -73, 74, 15, -18, 62, 21, -89, 115, 40, 33,
  -2, -13, -41, -37, -21, -40, -69, -24, 12, 55, 57, -77,
  -26, 45, -5, 28, 18, -94, -45, -25, 80, 92, 17, 20,
  4, -33, 42, 101, -5, -64, 33, 13, -31, 89, 5, -40,
};

const int32_t CONV1_B[16] = {
  1087, -48, -107, -113, 1177, -48, 206, -496,
  173, -263, -177, 1117, 866, -97, 661, 174,
};

const int8_t CONV2_W[1536] = {
  66, 26, 23, -57, -57, -27, 64, 65, 30, 14, 43, -25,
  -7, -31, 23, 23, 24, 10, 53, -39, -55, -3, 7, 17,
  11, 13, 55, -18, 28, 46, 71, -23, 52, 55, -31, -20,
  -67, 38, 8, 24, 8, 2, 52, -37, -22, 40, 25, 50,
  -17, -39, 8, -10, 35, 20, -26, 40, 38, -39, -4, 49,
  51, -16, 6, -32, 9, -39, -42, 6, 30, -12, -36, 34,
  -44, 5, -21, 17, 20, -28, 33, -55, 47, -12, 22, 22,
  36, 16, 22, -13, -36, -41, 22, 47, 17, 41, 6, -53,
  34, 52, 33, -47, -44, -13, 8, 64, -20, 21, 27, -33,
  -17, -36, 72, 18, -35, 49, 48, -24, -9, 5, 51, 54,
  -33, 20, -5, 10, 13, -15, 63, 14, -42, 35, 6, -28,
  -12, 12, 6, 12, 3, 14, 15, -16, 5, -41, 16, 26,
  -32, -21, 39, 23, 54, 15, -25, -34, -11, -14, -76, 45,
  -18, 35, -55, 26, -46, 22, 61, -24, 62, -45, -19, -41,
  27, -7, -4, -1, -2, 42, 17, -22, -18, 47, 11, 43,
  0, -31, -38, -63, 9, 28, -75, -15, -38, 32, 9, -22,
  15, 45, 59, -32, -3, -36, -27, 17, 24, -16, 8, -50,
  -29, 69, -31, 53, -51, 40, 30, 32, -37, 14, -6, -10,
  18, 31, -30, -25, -52, 95, 6, 65, -5, 79, 21, 0,
  23, -4, 22, 9, 31, 53, -32, -47, 0, 32, -33, 50,
  7, -30, 31, -51, -5, 7, -39, -57, -30, -3, -23, 84,
  -18, -26, 62, -3, 65, -44, -39, -28, 70, 16, -30, 2,
  -1, 16, -55, 68, 28, 1, -2, -29, 24, -51, -55, -45,
  13, -36, 35, -32, -50, 26, 8, 50, 26, 42, -6, -91,
  11, 22, -21, -16, -46, -1, 72, 50, 44, 5, 75, 16,
  -5, 3, 30, 29, 40, 10, -30, -33, 16, 50, 29, 63,
  68, 42, 31, -45, -30, -14, -11, 36, 23, 49, 10, 35,
  -39, 11, 49, 8, 32, 35, 78, -29, -7, -5, 60, -7,
  15, 74, 28, -19, -4, 41, 32, -18, 74, 6, -27, -15,
  -58, 64, -45, 46, 11, 43, 0, -49, -6, -33, -25, 38,
  52, 54, -17, -31, -52, 42, -13, 59, -7, 87, 68, -68,
  -54, 35, -24, -27, 77, 28, 29, -14, -49, 75, -46, 12,
  30, 56, -19, 45, 19, 39, 25, 7, 42, 41, 2, -6,
  -1, 56, 6, 63, -31, 59, 23, -34, 2, -14, -38, 25,
  62, -21, 19, -41, 29, 35, 8, 51, 16, 12, 11, -5,
  21, 53, 42, 71, 31, 21, 42, -3, -6, 45, 8, 63,
  0, 26, 19, -3, 47, -30, -54, -78, 31, 52, -75, 3,
  49, 49, -59, 4, -54, 61, 62, 28, 78, 6, -63, -127,
  3, 30, -7, 54, 14, 48, -75, 42, -53, 39, -7, -11,
  7, 22, -67, -81, 6, 38, 0, 40, 12, 32, -94, -7,
  63, -43, -43, -89, 39, -8, -5, -41, -60, -43, -52, 72,
  55, -31, 24, -105, 18, 13, -72, -92, -7, -60, 36, -14,
  -14, 30, -36, 49, -15, 8, 71, -61, 74, -18, -22, -63,
  5, -4, 4, -41, -48, -18, 13, 23, 5, 16, 43, -107,
  47, 14, 23, 18, 45, 4, 54, -9, -3, 42, 56, -3,
  -11, -16, 67, -35, 36, -43, -3, 69, 52, 63, -32, -18,
  -10, -32, 9, 7, 28, -51, 64, 31, 14, -54, -4, 44,
  47, 37, 20, 11, 25, 9, -7, 64, -8, -29, 11, -11,
  70, 23, -75, -25, 6, 17, 10, -29, -33, 1, 18, 41,
  -41, -12, 24, -51, 69, 35, -51, -59, 2, -45, 27, -1,
  19, 6, -28, -35, 26, -12, -15, 2, 44, 11, -17, 12,
  -5, 15, -16, 24, 2, -14, -13, 42, 8, 36, 36, 11,
  8, 19, 39, -15, 58, 9, -60, -32, 53, -63, -28, 13,
  -41, 19, -44, 34, -55, 39, 32, 57, 27, 30, -48, -48,
  41, 9, -89, -14, -45, 49, -31, 24, -56, 83, 53, 44,
  60, 42, -35, -74, 2, -10, -51, -25, -31, 7, -3, 2,
  -34, 52, 20, -28, -25, 18, -40, -42, 15, 53, -32, -16,
  64, 46, -23, 63, -33, 5, -9, -3, -37, -16, 29, -30,
  59, 57, -34, 39, 61, 38, -27, 54, 9, 52, 61, 45,
  32, 3, 5, -37, 53, -4, 27, -29, 44, 25, -42, 27,
  61, -23, 4, -67, 85, -20, 44, -31, -63, -5, -54, 22,
  52, -13, 28, -18, 40, -21, -37, -22, 47, -26, 27, -25,
  -46, 0, 24, 53, -14, 12, -16, -11, 6, -21, -7, -26,
  11, -45, -16, -40, -67, -39, -24, 85, 23, -17, -23, -85,
  10, 59, 24, 27, 11, -10, 36, 67, 24, 20, 61, 17,
  14, 9, -5, 14, 0, 72, 54, 16, 0, -9, 27, 16,
  11, 32, 11, -14, -8, 48, -19, 2, 23, 43, 42, 20,
  -9, 30, -5, 38, 76, 52, 38, -43, -20, 31, 45, -8,
  4, -45, 7, 1, 3, 42, 6, 47, 41, -3, 29, 58,
  -5, -41, 43, -54, 30, -13, -13, 66, 54, 11, 10, 30,
  -31, 27, -32, 54, 40, -35, 1, -56, 68, -67, 1, 53,
  37, 21, 31, 40, 42, 10, -36, 63, 4, -16, -2, -49,
  57, 15, -20, 56, -35, 54, 41, 70, 38, -30, 41, -47,
  -57, -86, 56, 30, -23, -46, -40, 5, 25, 51, 27, 9,
  -35, -7, 45, -32, -54, -67, 56, -15, 62, -41, 3, -3,
  4, 7, 6, -5, -5, 8, 20, -50, -53, -23, 33, 3,
  -16, 61, 14, -12, -22, 14, 19, -27, -35, -5, -1, -26,
  43, 66, -18, 36, -30, 38, 18, 37, -1, 30, 41, -38,
  -43, 51, -48, -14, 20, 49, -16, 36, -31, 80, -24, 16,
  -16, -28, -35, -3, 25, 36, -7, 40, 55, 9, -18, 56,
  -49, 26, 53, 45, 9, -3, -69, -17, 45, -3, -54, 48,
  62, 36, -21, -23, -35, 11, 11, 34, 13, 1, -88, -74,
  -41, 23, -17, 54, -8, 62, -60, 13, -41, 8, 18, 39,
  7, 16, -37, 13, 15, 36, -66, 14, 15, 14, 4, 23,
  8, 20, 38, 26, -5, -39, -11, -30, -36, -7, 34, -41,
  -37, 7, -13, 1, -1, -17, -14, 17, -26, -37, -11, 37,
  -30, -10, -21, -12, -12, 17, -46, 32, 34, 17, -3, -51,
  24, -8, -47, 2, 6, -46, -48, -3, -39, -39, -33, 5,
  35, 30, 16, -4, 54, 23, 46, 0, -67, -22, -67, 50,
  38, -12, 26, -39, 24, -11, -47, -41, 5, -2, 35, -38,
  -70, -41, -11, 37, 44, 4, -19, 21, 6, -28, -54, -24,
  40, -26, 3, 8, -70, 9, 2, -17, -7, 53, 24, -16,
  -15, -19, 4, 33, 15, -33, -4, -4, -50, 37, 39, 13,
  14, -35, -22, -9, -22, -33, 57, -40, 45, 12, 5, -16,
  -9, -15, 48, -25, -5, -16, 26, 58, -15, 3, 56, 16,
  -7, 3, 64, 13, -14, 48, 42, -53, 35, 32, -8, 12,
  -16, 73, 32, -26, -23, 39, 25, 21, 27, -48, -13, -32,
  -60, 9, -12, 8, 5, 77, 2, -8, -32, -1, -4, 8,
  63, -31, -20, 8, -75, 60, -39, 50, -65, 69, -16, -14,
  31, 35, 26, -18, -7, -39, -24, 23, -41, 77, 7, 17,
  15, 30, 29, -83, -84, 19, 0, 25, 42, 5, -32, -74,
  -53, 36, -25, 13, -10, 17, 11, -33, -93, 44, 1, 70,
  27, 36, -11, -77, -15, 29, 36, -17, 15, 43, 53, -87,
  -59, 49, 26, 44, 16, 21, 36, -55, -3, 20, -43, 23,
  12, 86, -9, 25, -29, 40, 36, -6, 25, 39, 15, 12,
  -24, 61, -42, 11, -9, 3, -20, 8, -17, 35, 10, -9,
  -10, 43, -12, -55, 9, 28, 23, -3, 44, 75, 47, -10,
  -59, -20, 3, 54, 63, 0, -3, 0, -25, 44, -23, -23,
  15, -47, -51, -56, 50, 25, 1, -58, -55, -25, -13, 47,
  56, 31, -41, -17, 17, -2, 13, 22, 14, 8, 26, -25,
  -42, -14, -13, 9, 22, 10, 33, 17, 61, -21, -32, -32,
  -18, -6, -11, -56, -37, 35, -52, 42, 30, -1, 30, -21,
  74, -50, 11, -61, 8, 21, 2, -52, -62, 42, -14, 62,
  -2, -17, 11, -1, 35, -18, -35, -61, 23, -2, 41, -42,
  -31, 31, -33, 67, 47, -29, 10, -26, 75, -63, -15, 8,
  26, -6, -34, -24, -55, -22, 0, 11, -13, -2, 20, 15,
  6, 17, 38, -19, -6, 63, 59, 75, 11, -25, 70, -36,
  23, -62, 60, 57, -32, -9, 50, 20, 52, -3, 38, 94,
  9, 14, 71, 25, -27, -58, 70, 25, -32, -18, 29, 58,
  14, -13, 35, 64, 63, 30, 51, 18, -42, -51, -3, 49,
  57, -27, -26, 41, 7, 25, 37, 47, -4, 18, 7, -11,
  -36, -26, 16, 19, 54, 57, 11, 8, 21, -25, 40, 30,
  45, 36, 24, 29, -9, -32, 43, 29, 41, 14, -39, 42,
  36, 51, 46, 60, -1, -34, 9, 24, -20, -36, 71, -8,
  41, 39, -23, -50, 31, -15, 23, 24, 5, 2, 53, 18,
  37, 18, 58, -8, 0, -26, -73, 22, -1, 25, 60, 35,
  32, -47, 45, -12, 25, 8, 47, -33, 46, -7, -70, -9,
  22, 27, 50, -13, 34, -49, 0, 15, -36, 21, 41, -29,
};

const int32_t CONV2_B[32] = {
  76, 409, -225, -65, -12, 628, -141, 15,
  -314, 43, 658, 253, 403, 148, -180, 696,
  -237, 397, 19, 14, 40, -58, 410, -125,
  -36, 27, -148, 519, 560, -288, 104, 125,
};

const int8_t DENSE1_W[512] = {
  58, 31, 30, -54, -34, -81, 65, -18, 0, -88, -93, 75,
  -1, -62, -61, -51, -7, 66, 41, -3, 6, 40, -34, 5,
  5, 15, 82, -23, -35, 90, 88, 86, 66, -75, 23, -18,
  40, -25, 7, 121, -25, 31, -44, -57, 58, -8, 107, -60,
  66, 18, -12, 1, 13, -60, -48, -12, 97, 11, 63, -42,
  49, -59, 9, 2, -49, -15, -23, 56, -65, -8, -70, -23,
  20, 23, -10, -39, -67, -63, -31, 59, 66, -49, 7, -5,
  -40, 66, -42, -11, 4, 45, -42, 52, -28, -28, 24, -31,
  -55, 12, -32, -64, -60, -18, 13, -2, -69, 4, -46, 36,
  51, -61, 29, -45, 59, -22, -47, 55, 34, -20, -41, -13,
  -62, -57, -29, -10, -27, -32, 34, -42, 67, -48, 57, -18,
  -70, 5, -10, 9, -34, 51, -6, -59, 4, 21, -11, 60,
  52, -53, -3, 26, -25, -50, -36, -30, -19, 28, -37, 23,
  22, -29, 38, -5, 37, 5, 28, 17, -15, 44, -68, -57,
  -40, -25, -5, -59, -78, -2, -11, 48, -62, -17, 59, -62,
  -62, -2, -65, 33, 19, -19, -35, 10, 43, 40, 30, -22,
  -3, 32, -20, -85, 72, 38, 52, 47, -29, -91, 89, -36,
  52, -11, -56, -24, -6, -44, -91, 39, -74, -32, 72, -9,
  48, 91, 47, 79, 37, -59, 39, 66, -58, -2, -100, 6,
  24, 110, -87, 42, -33, 36, 36, 36, 6, 72, 23, -8,
  -33, 4, 9, 52, 24, -31, 18, -24, 69, -61, -10, 81,
  16, -32, -3, 11, 0, -39, 17, 25, 60, -76, 14, -14,
  -4, -18, 53, -81, 12, 41, -35, -26, -50, -12, -2, -13,
  -54, 31, -42, -63, -14, 44, -45, -34, -46, 53, 38, 12,
  -20, 42, 61, -18, -114, 79, 19, -63, -69, 10, 3, 48,
  59, -36, -68, 64, 18, 62, 80, -45, -61, -30, 28, -20,
  -74, -26, -70, 9, 43, 25, 28, 57, 40, -27, 75, -59,
  56, -33, 46, 52, 59, -108, 14, -76, 63, -10, 48, -53,
  -18, -62, -96, 56, -28, -36, -10, 61, 9, 123, 22, -8,
  11, 47, -38, 4, 55, -67, -4, 32, 48, -69, -23, 27,
  42, -54, -59, -44, -48, -32, 52, 58, -59, -37, 7, -10,
  -23, -56, -69, -61, 8, -66, -19, 28, 20, -47, 30, -15,
  44, 65, -71, -43, -73, 51, -23, -69, -13, -63, 71, 42,
  17, -58, -14, 79, -47, 72, 50, -94, 33, -74, 51, -93,
  -21, -22, -17, 69, 77, -14, 15, -31, 43, -9, 22, -57,
  -20, 53, 2, -11, -45, -53, 127, -4, 71, -100, -16, 93,
  -49, 71, -17, -18, -39, -48, -12, 19, -76, 10, -13, 37,
  89, -40, 64, 75, -45, 67, -58, 64, 73, 26, -105, 45,
  -37, 113, -3, 44, -1, 97, 62, 43, -53, -1, -113, 51,
  82, -54, 19, -82, -10, -1, 40, 33, 77, -23, -82, -67,
  114, 27, 19, 13, 57, -83, 79, 61, 50, -59, -72, 62,
  -18, -45, 90, -70, 22, 73, -33, 5, -69, -17, -33, 22,
  -44, 114, 61, -36, -20, 65, 65, 13,
};

const int32_t DENSE1_B[16] = {
  -342, 65, 0, -76, -96, -180, 314, 697,
  -120, 775, -520, 0, 617, 678, 583, -180,
};

const int8_t DENSE2_W[64] = {
  66, 53, 36, 23, 66, -31, 59, -74, -47, -89, 72, 51,
  -127, -31, -48, 70, 64, -53, -44, 52, 17, -67, -88, -88,
  5, 56, -29, 23, 6, 33, -84, 57, -91, -106, -74, -62,
  18, -56, 75, 45, -77, 49, -37, 52, 75, 60, 15, -110,
  -31, 42, 36, -73, 8, -5, -86, 64, 38, -120, 9, 22,
  -62, -98, 56, 52,
};

const int32_t DENSE2_B[4] = {
  -180, -64, 143, 59,
};

#endif // NN_WEIGHTS_H
